{
  "architecture": {
    "class_name": "Sequential",
    "config": {
      "name": "sequential",
      "trainable": true,
      "dtype": {
        "module": "keras",
        "class_name": "DTypePolicy",
        "config": {
          "name": "float32"
        },
        "registered_name": null
      },
      "layers": [
        {
          "class_name": "InputLayer",
          "config": {
            "batch_shape": [
              null,
              16
            ],
            "dtype": "float32",
            "sparse": false,
            "ragged": false,
            "name": "input_layer"
          }
        },
        {
          "class_name": "Dense",
          "config": {
            "name": "dense",
            "trainable": true,
            "dtype": {
              "module": "keras",
              "class_name": "DTypePolicy",
              "config": {
                "name": "float32"
              },
              "registered_name": null
            },
            "units": 32,
            "activation": "relu",
            "use_bias": true,
            "kernel_initializer": {
              "module": "keras.initializers",
              "class_name": "GlorotUniform",
              "config": {
                "seed": null
              },
              "registered_name": null
            },
            "bias_initializer": {
              "module": "keras.initializers",
              "class_name": "Zeros",
              "config": {},
              "registered_name": null
            },
            "kernel_regularizer": null,
            "bias_regularizer": null,
            "kernel_constraint": null,
            "bias_constraint": null
          }
        },
        {
          "class_name": "Dense",
          "config": {
            "name": "dense_1",
            "trainable": true,
            "dtype": {
              "module": "keras",
              "class_name": "DTypePolicy",
              "config": {
                "name": "float32"
              },
              "registered_name": null
            },
            "units": 10,
            "activation": "softmax",
            "use_bias": true,
            "kernel_initializer": {
              "module": "keras.initializers",
              "class_name": "GlorotUniform",
              "config": {
                "seed": null
              },
              "registered_name": null
            },
            "bias_initializer": {
              "module": "keras.initializers",
              "class_name": "Zeros",
              "config": {},
              "registered_name": null
            },
            "kernel_regularizer": null,
            "bias_regularizer": null,
            "kernel_constraint": null,
            "bias_constraint": null
          }
        }
      ],
      "build_input_shape": [
        null,
        16
      ]
    }
  },
  "weights": {
    "dense": {
      "sequential": {
        "dense": {
          "bias": [
            0.0,
            0.0,
            0.0,
            0.0,
            0.0,
            0.0,
            0.0,
            -0.019,
            0.0,
            0.008,
            0.0,
            0.0,
            -0.018,
            -0.031,
            0.0,
            -0.039,
            0.0,
            -0.031,
            0.0,
            -0.021,
            0.0,
            0.0,
            0.0,
            -0.019,
            -0.02,
            0.0,
            0.007,
            -0.018,
            -0.022,
            0.0,
            0.0,
            0.0
          ],
          "kernel": [
            [
              -0.183,
              0.156,
              -0.163,
              0.109,
              0.07,
              -0.016,
              0.063,
              -0.302,
              -0.203,
              0.353,
              -0.215,
              -0.349,
              0.337,
              0.144,
              -0.333,
              0.195,
              -0.335,
              0.285,
              0.124,
              0.037,
              -0.315,
              0.334,
              0.324,
              0.1,
              -0.195,
              0.329,
              0.314,
              0.133,
              0.273,
              0.066,
              0.11,
              -0.019
            ],
            [
              -0.24,
              -0.342,
              -0.137,
              -0.104,
              -0.23,
              -0.309,
              -0.054,
              0.192,
              -0.217,
              0.003,
              -0.352,
              -0.006,
              0.071,
              -0.056,
              0.049,
              -0.289,
              0.344,
              0.072,
              0.171,
              0.123,
              -0.324,
              -0.112,
              -0.237,
              -0.081,
              0.213,
              -0.102,
              0.282,
              0.138,
              0.167,
              0.061,
              0.263,
              -0.125
            ],
            [
              -0.124,
              -0.1,
              -0.0,
              -0.167,
              0.265,
              0.059,
              -0.261,
              0.26,
              0.19,
              -0.082,
              -0.222,
              0.295,
              -0.084,
              0.047,
              0.209,
              0.259,
              -0.221,
              0.085,
              -0.136,
              0.201,
              -0.021,
              -0.3,
              -0.315,
              0.132,
              0.02,
              -0.143,
              0.017,
              0.147,
              0.056,
              0.257,
              -0.352,
              0.191
            ],
            [
              0.19,
              0.019,
              -0.283,
              0.293,
              -0.099,
              0.053,
              -0.251,
              0.244,
              0.119,
              0.173,
              -0.031,
              -0.321,
              -0.04,
              0.094,
              -0.143,
              0.29,
              -0.089,
              0.204,
              -0.256,
              -0.234,
              -0.266,
              -0.234,
              -0.329,
              0.168,
              -0.053,
              0.236,
              0.148,
              0.038,
              0.01,
              -0.282,
              0.325,
              0.155
            ],
            [
              0.079,
              0.305,
              -0.08,
              -0.237,
              0.019,
              -0.346,
              -0.008,
              0.062,
              -0.316,
              -0.229,
              -0.086,
              0.069,
              0.272,
              0.169,
              -0.176,
              0.045,
              -0.249,
              0.289,
              0.34,
              0.2,
              -0.265,
              -0.308,
              -0.348,
              0.336,
              -0.23,
              0.312,
              -0.314,
              0.259,
              0.112,
              -0.071,
              -0.31,
              0.256
            ],
            [
              -0.282,
              -0.195,
              0.105,
              0.164,
              -0.161,
              -0.116,
              -0.329,
              -0.05,
              -0.221,
              0.2,
              0.133,
              -0.281,
              0.046,
              -0.345,
              0.307,
              0.284,
              -0.224,
              -0.335,
              -0.334,
              -0.345,
              -0.059,
              0.314,
              -0.095,
              -0.197,
              0.061,
              -0.032,
              0.36,
              -0.315,
              -0.089,
              0.17,
              -0.32,
              -0.241
            ],
            [
              -0.009,
              0.172,
              0.325,
              0.035,
              0.139,
              -0.238,
              0.008,
              0.081,
              -0.123,
              0.271,
              -0.152,
              0.041,
              -0.241,
              0.261,
              -0.244,
              -0.366,
              -0.047,
              0.149,
              -0.327,
              -0.264,
              -0.021,
              -0.344,
              0.127,
              0.166,
              0.233,
              0.207,
              0.213,
              -0.332,
              -0.015,
              -0.092,
              -0.264,
              -0.349
            ],
            [
              0.287,
              -0.005,
              0.119,
              -0.353,
              0.063,
              -0.286,
              0.107,
              0.084,
              -0.06,
              -0.166,
              0.353,
              -0.207,
              0.242,
              0.261,
              -0.008,
              0.205,
              0.254,
              0.271,
              0.236,
              -0.268,
              0.053,
              -0.03,
              0.177,
              -0.292,
              -0.097,
              -0.149,
              -0.326,
              -0.229,
              0.186,
              0.026,
              -0.155,
              -0.066
            ],
            [
              -0.273,
              0.05,
              0.136,
              -0.304,
              0.249,
              0.136,
              -0.078,
              -0.255,
              -0.237,
              -0.016,
              0.122,
              0.02,
              -0.168,
              0.001,
              0.047,
              0.297,
              -0.297,
              -0.235,
              0.134,
              0.277,
              0.299,
              -0.259,
              -0.247,
              -0.291,
              0.188,
              -0.313,
              0.008,
              -0.285,
              0.146,
              -0.072,
              0.105,
              0.196
            ],
            [
              0.061,
              -0.302,
              -0.231,
              0.301,
              -0.268,
              -0.303,
              0.332,
              -0.274,
              0.152,
              0.248,
              -0.166,
              0.233,
              0.081,
              0.304,
              0.104,
              0.155,
              -0.302,
              0.092,
              0.03,
              0.194,
              -0.27,
              -0.012,
              -0.211,
              0.125,
              0.036,
              0.225,
              -0.044,
              0.097,
              -0.058,
              0.284,
              0.337,
              0.144
            ],
            [
              0.304,
              0.198,
              -0.202,
              -0.038,
              0.03,
              -0.008,
              0.315,
              -0.019,
              -0.117,
              -0.255,
              0.158,
              -0.203,
              0.229,
              -0.033,
              0.352,
              -0.017,
              -0.084,
              -0.004,
              -0.07,
              0.179,
              -0.044,
              -0.236,
              -0.191,
              0.149,
              0.072,
              -0.314,
              0.103,
              -0.102,
              0.197,
              -0.026,
              0.209,
              0.128
            ],
            [
              -0.226,
              -0.053,
              -0.239,
              0.012,
              0.021,
              -0.206,
              0.105,
              -0.183,
              -0.342,
              -0.207,
              0.279,
              -0.079,
              0.111,
              0.004,
              -0.138,
              0.138,
              -0.344,
              0.047,
              -0.347,
              -0.103,
              -0.065,
              -0.042,
              0.315,
              -0.219,
              -0.204,
              -0.012,
              0.06,
              0.221,
              0.289,
              0.095,
              0.249,
              0.206
            ],
            [
              -0.111,
              0.124,
              -0.069,
              0.353,
              0.276,
              0.156,
              -0.266,
              -0.014,
              0.007,
              -0.113,
              -0.295,
              -0.005,
              -0.283,
              0.315,
              0.014,
              -0.349,
              -0.252,
              -0.096,
              -0.238,
              0.278,
              -0.237,
              -0.015,
              -0.019,
              0.093,
              0.296,
              -0.281,
              -0.273,
              -0.158,
              -0.004,
              -0.206,
              -0.239,
              -0.215
            ],
            [
              -0.174,
              0.02,
              0.292,
              -0.201,
              -0.349,
              -0.184,
              -0.005,
              0.27,
              0.268,
              0.003,
              -0.327,
              0.169,
              0.183,
              -0.303,
              -0.032,
              0.091,
              0.214,
              -0.04,
              0.169,
              0.059,
              -0.063,
              -0.314,
              0.148,
              -0.368,
              0.052,
              0.075,
              -0.298,
              0.109,
              -0.301,
              -0.189,
              -0.205,
              -0.304
            ],
            [
              -0.298,
              -0.155,
              -0.152,
              0.195,
              -0.115,
              0.237,
              -0.278,
              0.041,
              -0.095,
              0.281,
              0.003,
              0.264,
              0.023,
              0.067,
              -0.338,
              -0.265,
              -0.059,
              0.076,
              -0.327,
              -0.29,
              -0.169,
              -0.029,
              0.095,
              0.139,
              -0.055,
              0.063,
              0.308,
              0.236,
              0.318,
              0.154,
              0.102,
              -0.203
            ],
            [
              -0.34,
              0.049,
              0.273,
              -0.272,
              -0.242,
              -0.217,
              0.295,
              0.198,
              -0.343,
              0.046,
              0.019,
              0.113,
              -0.297,
              -0.36,
              0.064,
              -0.329,
              -0.109,
              -0.31,
              -0.009,
              0.276,
              0.101,
              -0.171,
              0.275,
              0.187,
              -0.273,
              -0.138,
              -0.12,
              0.165,
              -0.104,
              -0.261,
              -0.134,
              -0.002
            ]
          ]
        }
      }
    },
    "dense_1": {
      "sequential": {
        "dense_1": {
          "bias": [
            0.035,
            0.083,
            0.078,
            0.03,
            0.011,
            -0.002,
            0.008,
            0.009,
            -0.005,
            0.021
          ],
          "kernel": [
            [
              -0.198,
              0.125,
              -0.023,
              0.269,
              -0.139,
              0.294,
              -0.038,
              -0.277,
              0.371,
              -0.357
            ],
            [
              0.086,
              -0.148,
              0.177,
              -0.12,
              0.118,
              0.313,
              0.352,
              0.167,
              -0.062,
              0.322
            ],
            [
              0.213,
              0.154,
              0.239,
              0.141,
              0.248,
              0.035,
              0.124,
              0.044,
              -0.034,
              -0.169
            ],
            [
              0.218,
              -0.029,
              0.324,
              0.147,
              -0.367,
              -0.156,
              -0.039,
              0.209,
              0.08,
              -0.029
            ],
            [
              -0.168,
              0.187,
              -0.294,
              -0.315,
              0.017,
              0.249,
              0.273,
              -0.357,
              0.262,
              -0.289
            ],
            [
              -0.092,
              -0.212,
              -0.301,
              -0.234,
              -0.2,
              -0.194,
              -0.133,
              0.06,
              0.112,
              -0.058
            ],
            [
              0.242,
              -0.27,
              0.125,
              -0.369,
              0.165,
              0.188,
              -0.366,
              0.186,
              0.363,
              -0.308
            ],
            [
              0.328,
              -0.151,
              0.192,
              0.085,
              0.356,
              -0.111,
              -0.178,
              0.079,
              0.164,
              0.019
            ],
            [
              -0.052,
              0.315,
              0.06,
              0.133,
              0.31,
              0.012,
              0.273,
              0.239,
              -0.333,
              0.206
            ],
            [
              0.295,
              0.324,
              0.414,
              0.032,
              0.265,
              0.035,
              0.142,
              -0.164,
              -0.276,
              0.092
            ],
            [
              0.314,
              0.265,
              0.345,
              0.344,
              -0.22,
              -0.246,
              0.262,
              0.15,
              0.016,
              -0.312
            ],
            [
              -0.169,
              -0.356,
              -0.179,
              0.119,
              -0.061,
              0.112,
              0.011,
              -0.224,
              -0.05,
              0.261
            ],
            [
              0.198,
              0.317,
              0.378,
              0.102,
              0.33,
              0.337,
              0.267,
              0.276,
              -0.005,
              0.328
            ],
            [
              0.048,
              0.033,
              -0.062,
              -0.15,
              0.06,
              0.098,
              -0.01,
              -0.154,
              0.329,
              -0.065
            ],
            [
              -0.21,
              -0.329,
              0.078,
              -0.228,
              0.097,
              0.175,
              0.05,
              0.362,
              0.115,
              -0.32
            ],
            [
              0.015,
              -0.177,
              -0.241,
              -0.115,
              -0.198,
              -0.068,
              0.129,
              0.265,
              0.124,
              0.193
            ],
            [
              -0.109,
              -0.074,
              -0.164,
              -0.038,
              -0.114,
              -0.175,
              0.19,
              -0.192,
              0.111,
              0.059
            ],
            [
              0.095,
              -0.044,
              -0.205,
              -0.248,
              -0.026,
              0.112,
              -0.268,
              -0.174,
              0.052,
              0.307
            ],
            [
              0.213,
              0.268,
              0.146,
              -0.08,
              0.11,
              -0.227,
              -0.051,
              0.144,
              0.001,
              0.124
            ],
            [
              0.014,
              0.434,
              -0.099,
              -0.042,
              -0.093,
              0.107,
              0.229,
              0.189,
              0.318,
              0.317
            ],
            [
              -0.028,
              -0.06,
              0.225,
              -0.317,
              0.34,
              -0.07,
              -0.29,
              -0.001,
              -0.178,
              0.353
            ],
            [
              -0.288,
              0.096,
              -0.225,
              0.285,
              0.048,
              0.112,
              -0.088,
              -0.09,
              -0.102,
              -0.313
            ],
            [
              0.228,
              -0.285,
              0.167,
              0.007,
              -0.362,
              0.286,
              0.27,
              -0.017,
              0.208,
              0.051
            ],
            [
              0.137,
              -0.124,
              0.008,
              -0.174,
              -0.321,
              0.083,
              0.145,
              -0.324,
              0.342,
              0.358
            ],
            [
              0.005,
              0.002,
              -0.139,
              -0.05,
              -0.146,
              0.242,
              0.343,
              -0.281,
              -0.213,
              -0.189
            ],
            [
              -0.139,
              0.119,
              -0.355,
              0.105,
              0.093,
              -0.28,
              0.375,
              -0.07,
              0.287,
              0.296
            ],
            [
              -0.012,
              0.355,
              0.312,
              0.079,
              0.27,
              -0.148,
              -0.303,
              -0.242,
              0.167,
              -0.036
            ],
            [
              -0.252,
              0.059,
              -0.231,
              0.363,
              0.09,
              0.339,
              0.057,
              -0.114,
              -0.247,
              0.32
            ],
            [
              -0.093,
              -0.131,
              0.027,
              0.387,
              -0.07,
              0.033,
              0.252,
              0.378,
              -0.036,
              -0.21
            ],
            [
              -0.22,
              -0.376,
              0.264,
              0.215,
              -0.273,
              0.213,
              0.375,
              0.315,
              -0.081,
              0.12
            ],
            [
              -0.068,
              0.346,
              -0.213,
              -0.05,
              0.21,
              0.328,
              -0.081,
              -0.317,
              -0.358,
              -0.09
            ],
            [
              0.018,
              -0.143,
              -0.256,
              0.013,
              -0.105,
              0.095,
              -0.318,
              -0.35,
              0.089,
              0.051
            ]
          ]
        }
      }
    },
    "top_level_model_weights": {}
  }
}